-247 341 -288 -357 -98 -406 282 304 433 -135 
-233 94 102 145 475 -480 86 231 161 210 
263 601 202 -152 386 -263 -43 326 -190 101 
-6 390 58 -80 112 -410 227 -84 63 -115 
-285 11 5 -16 41 -190 -240 -199 -14 -114 
93 228 257 160 574 -262 -237 -311 226 157 
-66 49 227 -258 470 -570 209 73 14 390 
116 139 -292 0 257 -162 154 181 386 192 
-107 -30 33 -52 92 -270 -111 248 -143 139 
90 265 -432 57 512 -519 -42 -123 -200 -78 
399 160 -427 -166 314 -498 207 -221 169 293 
-109 585 151 -56 64 -611 320 41 -148 204 
280 218 -182 -27 149 -346 -138 234 344 37 
-227 233 72 164 119 4 106 178 430 -103 
295 245 -39 -38 552 -289 -115 -150 -73 444 
370 359 -179 -159 371 -268 -229 -334 -204 -107 
357 430 -90 177 486 -516 258 -19 261 -129 
221 149 195 35 586 -40 119 279 -92 272 
180 239 186 -95 88 -345 256 -289 -103 110 
363 289 -49 -79 -24 -48 -39 -172 -163 -114 
384 67 100 -18 325 -375 233 -94 240 465 
-18 188 138 -390 509 -287 35 -280 -94 -111 
-102 148 -67 107 609 -589 85 -343 -51 145 
314 380 263 -144 34 -514 188 -200 447 280 
141 476 95 7 36 -493 203 182 -243 265 
10 123 -420 -343 -30 -39 -145 -270 -179 -45 
-177 41 170 1 87 -495 12 -357 213 -12 
-175 388 49 -143 155 -26 267 -25 -108 362 
82 271 -385 113 201 11 -9 -151 -85 373 
387 76 175 209 83 -398 -74 337 187 -198 
-16 335 -322 -218 517 -401 -223 327 305 373 
-122 99 -323 106 179 -283 110 -65 -211 -53 
-47 606 30 -255 333 -513 -219 303 -241 129 
-220 289 -280 -20 360 -357 -40 226 379 409 
42 316 21 -363 231 -323 -199 -59 -238 -165 
-225 325 -271 -72 -25 -423 174 -197 158 -13 
131 604 100 -389 -200 -266 203 274 94 -78 
167 200 -164 64 175 -649 395 -109 156 122 
32 284 -385 -182 335 -176 103 257 -99 231 
99 41 -401 81 -187 -410 -20 263 -83 -77 
-109 82 -74 -393 25 -441 209 193 -222 -16 
-217 135 163 75 -108 -655 18 -86 374 183 
5 436 -154 168 -95 -460 273 -341 -65 110 
-125 169 -138 -101 -174 -534 146 -271 189 104 
350 273 -177 -74 -88 -302 190 -239 154 311 
211 59 -228 -322 123 -340 221 -152 325 57 
306 347 -158 57 -44 -371 164 -155 199 227 
-60 397 -226 -173 1 21 377 -41 436 411 
33 184 23 25 161 -569 139 120 194 333 
-219 551 -346 60 39 -612 386 183 111 -26 
116 36 112 -197 111 -108 228 190 131 181 
377 325 -219 -411 64 -583 -122 187 218 266 
165 550 164 160 586 -404 117 253 -151 68 
399 50 -12 -61 -20 -556 266 256 -147 246 
24 118 -154 -263 461 -414 -261 -238 -114 372 
363 503 48 129 412 -628 -15 -121 165 74 
-274 176 239 -164 86 28 322 -112 -86 468 
369 185 -42 -310 219 -375 -317 -77 -250 340 
-125 365 -250 -96 365 -326 88 36 297 455 
-50 -44 -102 -47 164 -202 -13 -137 37 319 
-252 116 -76 -292 218 -547 -174 254 307 109 
2 454 173 127 519 -52 -194 -100 39 133 
165 78 -236 156 249 -30 11 -271 337 -105 
379 36 -317 53 -21 -414 448 94 319 79 
337 37 -140 -438 -68 -226 512 256 -59 -235 
141 97 -352 -55 -3 -166 842 -102 141 224 
-315 -182 -69 -308 -460 -460 494 287 -159 287 
122 107 186 -473 -743 -70 872 -354 -103 -15 
-109 428 298 -21 -857 -157 677 168 215 321 
-71 -21 348 -20 -830 -218 1260 -313 27 226 
-261 563 -321 -252 -854 -620 709 -337 360 -304 
-546 265 354 6 -493 -382 774 69 125 363 
-244 33 451 14 -404 -663 800 -3 0 114 
-481 18 56 -144 -134 -600 776 -191 148 322 
101 146 -207 -125 301 -294 877 -331 -290 -246 
-344 -59 -216 -248 175 -576 946 60 -309 -57 
-455 147 -613 -492 -3 -491 854 85 -91 188 
61 117 -169 196 187 -467 412 -184 1 -201 
-178 -69 -265 -166 -95 -693 278 -60 -152 349 
278 223 192 -225 473 -511 364 -129 429 88 
-234 385 217 -8 9 -111 10 -40 224 -162 
-130 204 48 169 128 -398 -88 222 -71 131 
192 391 -232 -393 161 -40 -184 91 238 -169 
23 -76 -296 2 502 -477 187 -285 -238 393 
375 -14 -102 157 -61 32 81 171 357 -95 
-25 371 58 58 544 -102 -172 -236 -48 -223 
2 526 -389 169 448 3 328 183 -61 -13 
418 198 43 -106 -24 -234 -151 128 -236 57 
160 583 -364 -93 447 -383 -89 -42 -56 415 
98 160 -388 -124 500 -392 -79 -124 409 -143 
376 -41 -261 -280 -114 -310 400 -304 378 168 
333 -7 327 -70 55 -818 334 112 332 141 
-29 270 594 -339 -749 -357 716 -21 -222 58 
-501 59 937 291 -632 -483 387 -300 -6 -163 
-452 -184 1058 88 -924 -670 818 -112 -23 94 
-437 -701 1438 784 -1207 -1471 625 -60 -109 57 
-670 -688 1176 1238 -1776 -957 765 6 -501 -169 
-243 -110 1350 1372 -2339 -1043 1401 -603 -443 -115 
-651 -199 449 1137 -1977 -591 1026 -78 -232 -325 
-391 -160 158 976 -1535 -651 1011 -279 -502 -445 
-591 -370 116 471 -1333 -864 729 -587 -621 -466 
-150 -463 -105 651 -956 -672 1218 -364 -455 -57 
-860 -703 -641 372 -287 -676 1469 -397 -73 -65 
-728 -524 -346 -229 35 -537 995 -10 -658 170 
-604 -436 -437 -396 508 -93 1488 -206 -365 29 
-850 -40 -882 -801 435 -136 1220 93 -96 61 
-257 288 -534 -74 320 -333 1356 231 -316 -178 
-415 367 53 -155 453 -519 848 -18 -163 429 
-189 378 14 -13 114 -782 450 288 -11 -202 
333 -67 235 104 185 -376 199 252 291 23 
129 233 167 -141 -73 -3 260 -78 -216 -186 
-22 47 247 33 507 -128 86 270 -201 217 
339 -76 25 120 330 -236 71 172 230 366 
179 244 81 -191 21 -623 221 278 320 -215 
82 558 -247 -56 358 -590 289 -227 -62 251 
263 55 -46 -252 304 0 292 -6 363 261 
205 204 -252 -6 548 -610 84 10 -3 -139 
-284 5 -70 581 199 -316 331 -168 -102 367 
-143 112 106 626 -103 -741 83 222 3 162 
-35 -167 270 318 -66 -785 468 -19 -100 -218 
-205 -353 871 1087 -238 -1421 -120 -409 -76 77 
-232 -922 1944 1179 -751 -2057 345 -782 -29 8 
-573 -230 1651 1378 -1401 -2328 590 -786 -196 -39 
-222 -21 1460 1628 -1728 -1481 -180 -1036 -129 -556 
-907 372 1609 1751 -1978 -1511 -124 -1407 -54 -878 
-14 93 875 1579 -2251 -1984 -13 -952 357 -1182 
-606 348 935 1706 -1624 -1044 -248 -1000 415 -1713 
-470 100 38 1087 -1162 -752 -133 -1814 707 -2447 
-513 -574 112 147 -1155 -34 -123 -1592 200 -2036 
-304 -609 318 -80 -914 -236 482 -790 -39 -1639 
-598 -491 396 251 -428 56 1471 -866 -383 -1278 
-410 -113 -582 -228 51 -224 1001 -827 -644 -1074 
-273 548 -1213 -909 685 -784 1613 -722 -112 -374 
-259 745 -942 -1803 721 -46 1410 -412 -674 -265 
-122 607 -1581 -1239 650 809 1580 -378 -860 -240 
-233 147 -1141 -1414 618 118 1115 -127 -620 126 
-520 139 -139 -376 150 173 196 28 -204 330 
-80 194 -85 -398 6 -70 234 -58 202 82 
57 -80 -276 -357 165 -153 -95 311 452 -85 
-225 337 136 229 302 -212 124 16 497 -227 
9 451 -372 -189 597 -400 -314 -253 306 382 
-243 -20 164 109 565 -230 -39 -122 366 280 
-33 228 -99 -55 40 -84 -228 328 6 263 
-170 -55 -171 47 193 -692 -44 -79 -4 235 
48 600 -453 187 110 -684 66 -318 -195 324 
163 410 88 1224 441 -811 130 36 93 -147 
-1 -8 510 1191 -30 -1234 14 -99 -216 0 
-341 -543 476 1009 87 -945 -229 -107 -477 -547 
-139 -1285 1028 1100 -388 -597 46 -564 -520 -508 
-274 -1586 1559 1095 -135 -194 -242 -1237 -599 -1162 
53 -947 1549 618 -867 -348 -1 -1446 -812 -1304 
-177 -41 1534 747 -696 -469 -1314 -2166 520 -1461 
-223 359 1252 879 -1771 -508 -715 -2728 1267 -1898 
474 566 1448 520 -1517 -982 -1290 -2538 829 -2411 
832 292 1436 343 -1076 -459 -923 -2652 617 -3115 
728 -132 1259 419 -505 -677 -796 -3077 320 -3233 
724 -357 1684 346 -233 -490 -510 -2808 321 -3542 
1209 -736 1390 -421 -269 -264 127 -3161 546 -2575 
967 -716 489 -535 -171 369 450 -2173 91 -2086 
307 -198 -487 -668 24 519 890 -2056 0 -1656 
183 200 -608 -1092 292 477 1086 -1291 -428 -1124 
22 1468 -795 -2097 1180 764 453 -1098 -224 -1290 
16 993 -1650 -2180 1038 1141 313 -334 -646 -826 
-199 404 -1415 -1458 1850 1177 -70 -626 -1168 -906 
-372 384 -532 -363 964 867 -489 -271 -731 -585 
-78 274 74 -368 194 287 -12 -161 425 -302 
-269 -81 33 74 273 -399 289 299 246 -145 
-196 330 -177 -192 381 -360 51 -98 152 201 
243 -49 -39 -285 192 -462 -46 24 398 -51 
-169 57 -93 -156 449 -102 -269 -40 407 -125 
102 255 56 -16 468 -296 314 26 66 -46 
10 37 81 713 541 -443 -186 249 40 301 
-125 -53 89 1390 413 -1343 -468 -171 84 -374 
-293 -42 -10 1733 855 -1262 -686 311 -110 -804 
-218 32 903 1437 413 -1393 -409 1183 -477 -921 
83 -853 820 537 77 -737 -706 880 -783 -1643 
-572 -2022 581 1293 -597 -722 -336 904 -374 -1694 
-1062 -2338 518 625 -220 180 -278 699 -150 -1763 
-117 -1703 1080 1016 -897 647 -1097 -40 -628 -1528 
-402 -574 689 550 -1199 262 -1176 -467 118 -1187 
603 -661 808 544 -2314 -376 -1100 -1091 -146 -393 
358 -736 1058 1192 -2483 -87 -1047 -1624 -247 225 
354 -166 630 800 -2675 -344 -842 -2121 110 1335 
900 -1510 1090 326 -2564 -807 -934 -845 357 954 
1232 -1619 650 666 -1646 -446 -1176 -787 264 881 
723 -1573 -263 508 -1532 -586 -942 -813 87 542 
1077 -1056 -69 600 -1656 380 -903 -1227 -41 261 
1134 -147 -463 -474 -570 752 -373 -947 156 -267 
754 -270 -422 150 -600 816 -821 -1289 541 -875 
1370 786 -610 -578 140 96 -812 -856 161 -1492 
470 226 -1450 -1917 1713 1346 -1057 -1240 407 -2126 
96 177 -1475 -1901 2163 1567 -1207 -757 81 -1572 
-887 -60 -786 -945 593 2541 -672 -821 374 -1125 
-769 -286 -376 -189 130 1593 -390 -21 381 -329 
7 439 -425 -40 540 -26 52 144 360 -146 
-264 41 -372 39 453 -162 35 282 -6 -40 
-112 182 -359 -394 89 13 76 -370 39 289 
238 5 -58 -26 2 -358 -190 188 -127 286 
-196 447 -316 -170 -92 -432 -133 212 67 28 
-195 112 -262 854 623 -788 -225 430 161 60 
-176 52 95 2022 447 -2172 46 814 -333 -906 
-458 -279 32 1490 818 -1513 -465 998 -495 -1060 
90 -941 713 1679 -379 -1320 -686 1550 -831 -1519 
-743 -1315 914 327 -8 -978 -150 1519 -247 -2353 
-654 -1973 681 281 -211 471 -441 1428 242 -1783 
-376 -2502 600 203 -559 820 -989 1103 -149 -1167 
-662 -1938 442 213 -1124 855 -1098 959 -571 -161 
-114 -867 502 410 -1811 682 -1393 935 -656 330 
659 -407 -105 746 -2558 -299 -1548 510 -842 896 
875 -454 382 894 -2281 -328 -1473 -295 -291 1331 
117 -1179 487 1628 -2506 -316 -1282 -356 -832 2070 
651 -1807 116 627 -2664 -280 -760 -250 -209 2046 
491 -1905 -29 395 -2511 -386 -2113 867 -28 2237 
1328 -1430 -1247 529 -1710 63 -1201 669 -198 630 
1376 -958 -280 665 -1339 353 -1931 890 178 686 
567 -227 174 427 -1091 958 -2070 555 -184 54 
570 -11 -815 897 -1086 838 -2088 -223 181 -126 
383 156 -198 -134 -627 1027 -2212 -515 784 -386 
705 -692 -475 -857 910 1484 -2238 -477 251 -1923 
125 -1147 -1872 -2031 1324 2470 -1697 -810 1569 -1746 
-632 -714 -1075 -1596 792 2792 -537 -858 730 -1453 
-860 -770 -149 -208 123 2325 -490 -116 -285 -432 
-359 315 -283 -168 172 792 -272 -352 -400 -189 
62 108 199 59 448 -261 -43 -143 -224 -185 
-213 369 -235 -60 4 -652 -272 -358 107 410 
-42 47 -254 -269 353 -655 189 72 65 -87 
-153 566 25 192 -69 -717 329 303 311 217 
-415 480 -224 487 417 -708 -301 279 -266 -546 
-178 386 124 1484 437 -1657 -346 1518 65 -915 
-516 -238 323 1520 167 -1858 -588 1458 -48 -1637 
-483 -833 64 1053 132 -1450 -1208 1736 149 -1720 
-604 -1248 176 247 -466 -905 -656 1845 -371 -1800 
-685 -2402 848 -5 -1045 494 -892 1160 -20 -1396 
-384 -3006 536 -374 -529 393 -768 728 654 -791 
-232 -2330 504 57 -484 711 -1276 926 196 -477 
169 -1078 849 -295 -1050 1071 -829 1455 -89 -107 
156 -793 503 -110 -1478 396 -981 1238 314 -400 
138 -191 526 43 -1362 -816 -1859 400 74 1008 
-32 -389 833 924 -2662 -1155 -1667 433 -854 1926 
632 64 604 1159 -2923 -1435 -1884 267 -779 1459 
1718 -1007 -284 632 -1653 -763 -2036 654 78 899 
1224 -540 -556 318 -1759 -163 -2698 1537 -537 -53 
1054 -688 -82 1030 -1062 50 -3132 1019 52 -176 
681 -702 -174 404 -849 31 -3341 450 310 -745 
249 -944 22 1156 -576 1204 -2733 483 539 -887 
583 -1139 -262 315 -930 1396 -3125 191 412 -268 
325 -1625 -759 -400 381 2215 -2964 10 636 -1256 
1393 -1233 -1573 -2071 442 2974 -1800 -477 530 -1851 
129 -1316 -1531 -1890 305 4646 -1255 -546 788 -1435 
-1068 -765 -629 -537 51 3385 -717 -781 -99 -509 
-254 321 131 20 5 1110 -134 -428 20 -150 
-169 197 -160 -475 354 -228 -331 -99 264 -20 
-90 84 56 76 -47 -501 206 78 404 158 
-189 353 211 -455 384 -182 -11 38 -150 -34 
44 300 -8 -374 287 -472 300 159 -157 333 
-105 82 -265 181 274 -416 -577 897 2 -134 
-691 131 321 1032 -24 -1696 -380 1169 7 -1075 
-284 -214 949 1331 -14 -1674 -691 1308 368 -1215 
-567 -310 223 523 -575 -373 -632 641 244 -693 
-289 -955 -194 -137 -780 -315 -291 667 604 -695 
-347 -1792 -420 -850 -743 331 -19 305 602 -407 
307 -2164 -397 -1381 -375 371 -864 556 553 -468 
-142 -2254 -4 -1813 -631 551 -795 680 761 200 
-324 -783 -303 -2900 -577 1162 -846 1146 1023 144 
-337 -1000 -783 -2902 -505 371 -762 1561 599 -206 
392 165 -324 -875 -1075 -283 -735 1319 248 400 
-11 656 6 1621 -3851 -1362 -958 1425 -1376 1085 
323 1331 307 2143 -3080 -1749 -2080 1663 -1844 567 
685 914 438 1804 -803 -2053 -2733 1977 -901 -227 
1263 -380 -246 1057 -544 -1414 -3116 2007 -99 -482 
1858 -850 -407 940 -658 -783 -3199 1607 226 -329 
1229 -1269 233 696 -64 -273 -3096 1436 45 -867 
776 -1514 -262 1075 -567 790 -2671 1040 123 -363 
-251 -1963 -540 389 -1198 1333 -2169 478 626 -1146 
234 -2360 -767 -1024 -445 2389 -1899 -112 341 -827 
1102 -2185 -1373 -2087 -653 3236 -1761 -749 641 -1317 
649 -1472 -1387 -1201 -1085 4836 -1976 -1096 413 -1123 
-1162 -182 -82 -518 -761 3912 -1015 -800 46 -627 
-299 240 -401 -69 -209 706 -355 -85 347 -15 
-297 429 -239 -477 128 -424 -108 243 52 155 
174 592 44 -107 426 -384 -49 213 174 188 
-271 -15 -174 7 529 -19 145 -90 -201 -232 
-274 36 25 -289 -215 -522 347 392 -78 -233 
-456 -111 43 635 -470 -551 51 775 -179 -416 
-93 -34 -486 436 -163 -873 -200 902 570 -897 
-225 -194 -234 525 -626 -991 -639 846 500 -339 
-398 -902 -89 -251 -686 223 73 115 785 350 
271 -865 -2014 -1301 -291 463 160 -23 1456 179 
85 -620 -2557 -2534 -782 914 528 -409 1101 368 
-97 -1016 -1693 -3689 -141 1065 -225 -122 965 837 
-256 -512 -1726 -3835 348 1641 -238 416 1317 441 
-138 -1074 -2217 -3996 80 1789 -242 617 1005 1085 
-340 -520 -2506 -3090 230 1316 -736 128 697 311 
-297 564 -2857 -827 -1226 824 -462 1061 -190 -749 
-772 2432 -1620 1289 -4029 -503 -1278 1542 -513 -301 
-813 2632 -502 1664 -1433 -1591 -1733 2157 -1849 -1214 
-839 1187 -304 1177 290 -2287 -1992 2534 -1894 -1118 
599 -674 -171 1316 99 -2491 -2474 1830 -713 79 
1093 -1340 -257 928 -74 -2207 -2377 927 104 214 
1469 -1741 -203 1415 470 -2497 -1850 1442 257 -92 
1170 -1720 -439 1148 -1346 -2019 -1354 1346 171 103 
493 -1863 -768 11 -929 -1257 -1004 840 872 -696 
830 -1752 -1061 -904 -653 -588 -989 467 1043 -639 
1979 -1433 -1529 -1527 -1014 303 -377 -702 1402 -923 
1274 -637 -686 -458 -1167 2099 -754 -397 563 -1074 
-381 229 -113 -412 -738 2306 -589 -447 515 -646 
-214 471 -205 -119 -111 138 -610 -308 169 -266 
117 459 -24 -307 13 -132 36 101 -121 323 
-143 335 25 -48 461 -379 -72 317 451 -83 
184 487 -51 -174 415 -414 -295 -11 -190 260 
-127 448 -374 193 42 -76 -185 71 358 -271 
158 345 -535 88 131 -283 -214 1377 133 -607 
-232 54 -874 130 150 -481 -517 1146 462 -342 
-277 -172 -1473 -711 -740 -161 -145 295 674 1146 
-120 -149 -2734 -2124 -352 450 167 458 1021 1025 
76 -713 -3793 -3274 -190 508 84 189 1484 1139 
428 -548 -4134 -3693 424 999 124 -261 1554 1657 
-156 -907 -4439 -3172 1051 984 149 181 1348 549 
38 -807 -4007 -2525 1501 788 125 643 1297 956 
-366 -1766 -3874 -1720 1564 1190 365 110 703 920 
-25 -1084 -4351 -1057 1256 1468 -58 48 500 -873 
-820 950 -5221 -43 -2127 1377 -116 443 1580 -1201 
-1897 2569 -4202 956 -3590 28 -997 319 1477 -569 
-3202 3224 -1913 678 -416 -1940 -1979 1768 -812 -627 
-2759 1266 -956 647 1400 -1967 -1844 1988 -1176 571 
-1823 -393 -1148 1063 402 -1927 -1676 1184 -900 1227 
-63 -509 -380 1426 -425 -2893 -1097 1246 -459 781 
326 -1276 137 873 -813 -4103 -1119 863 17 1188 
640 -1381 -434 562 -1248 -5210 -459 1244 996 1517 
1084 -941 -229 -440 -478 -5353 -145 26 1206 1146 
1253 -455 -1371 -681 -553 -4788 721 -260 2239 576 
1966 -164 -1119 -508 -617 -3295 1262 -381 1762 158 
1243 214 -546 -186 -871 -1295 -85 -850 1643 -561 
175 -31 -26 -171 -232 4 82 -251 873 -407 
-144 497 -80 103 -83 141 -183 227 706 -106 
-241 279 -168 -434 -95 -574 -175 189 265 414 
381 39 103 63 388 -35 -107 152 -131 -33 
283 371 -143 -216 523 -250 363 -237 -157 22 
196 538 14 -200 164 -80 96 179 396 312 
-265 -54 -225 -177 71 -459 234 762 425 -303 
-503 399 -961 -543 -78 -398 -92 1318 295 597 
-180 88 -2518 -1280 -332 285 -102 76 209 1142 
652 76 -4721 -2400 -278 382 164 -446 698 1245 
255 -510 -5244 -3191 1369 826 698 -56 858 1062 
158 -497 -4862 -2049 1383 263 81 -102 489 1251 
-447 -707 -5169 -1530 1708 -224 319 -297 1235 1605 
-5 -2046 -4628 -679 2191 1141 200 -815 14 297 
-38 -2813 -4008 -176 2805 1995 346 -1449 394 -245 
-117 -968 -3870 -408 2667 2069 240 -2958 217 -1465 
-1036 969 -4368 182 -768 1269 -578 -4395 2592 483 
-3493 2408 -4187 1007 -1713 -584 -1095 -3388 1864 1574 
-4114 2145 -2150 823 519 -1139 -1383 -253 137 1025 
-3694 150 -1732 731 1505 -2196 -474 1194 -56 1396 
-2280 -472 -1452 631 578 -2349 -727 1157 -63 1578 
-940 -249 -947 447 -390 -1777 -1063 597 -560 1596 
-610 -911 -62 -825 -475 -2325 -1083 314 -325 2347 
-248 -919 -27 -1166 -932 -2882 -229 -204 845 2234 
624 -612 -651 -1617 -238 -4501 336 -315 1428 1755 
1444 -596 -1013 -1831 -75 -5220 982 -427 1820 325 
2086 -433 -1926 -802 -1005 -4397 2386 -611 1599 -182 
1489 79 -411 -354 -657 -2498 1572 -560 1010 -516 
-18 -52 -331 -359 -77 -202 -168 -41 541 187 
96 298 -201 -399 541 -540 -184 -14 630 315 
68 392 -143 82 51 -183 91 145 16 157 
-217 65 -78 163 163 -597 183 -47 22 -122 
308 285 -40 42 119 -301 145 67 43 169 
-273 325 17 -148 499 -267 -343 674 84 -323 
-402 245 54 -26 161 -497 305 593 98 -3 
-210 -16 -917 -723 585 -366 -702 317 122 1014 
325 -225 -3288 -1364 671 -182 122 -19 -549 1214 
902 114 -4118 -1650 1408 389 446 -56 -950 1355 
546 -206 -4013 -2446 1694 498 584 -193 -642 926 
250 -746 -3819 -1026 2043 -151 -514 -506 -869 763 
-284 -1719 -2605 -450 2148 561 650 -1242 -147 852 
23 -3150 -2244 -504 2514 1447 427 -1842 -1081 281 
358 -3327 -1649 -440 3461 1592 348 -3900 -217 -705 
-292 -877 -1674 2 2735 1008 237 -5226 360 -742 
-2318 772 -1903 610 -262 431 -456 -6324 2110 1300 
-3509 2621 -1801 1252 -984 -972 -969 -3492 1163 1524 
-4461 1991 -1638 176 1119 -1814 14 -453 518 1184 
-3733 112 -1887 524 881 -2274 -512 278 209 1320 
-1628 -382 -1279 570 1100 -1327 -388 116 -239 1532 
-1024 -1183 -335 -231 420 -890 -1139 -239 -285 2261 
-1225 -1560 -857 -1166 -310 -448 -645 -238 -447 1981 
-878 -585 -546 -2032 87 -563 65 -189 3 1528 
-134 -565 -665 -1526 711 -1502 720 -1072 -264 851 
840 -420 -817 -1447 146 -2340 1531 -486 -7 -923 
1702 -248 -892 -571 -241 -3214 2371 -598 299 -1354 
1815 -383 -735 -308 -360 -2042 1706 -288 589 -1090 
-429 91 -68 154 123 -770 -118 279 217 85 
351 116 -61 -164 279 -227 -305 170 -43 -242 
-16 122 -292 192 117 -474 -305 -222 454 -224 
266 216 -221 210 486 -337 250 156 -66 -61 
-172 429 -326 7 607 -673 132 188 65 423 
-235 70 145 -365 150 15 159 545 147 256 
-470 171 -338 -101 423 -360 270 250 -246 -115 
-251 339 -523 -70 1262 -650 -415 590 -278 804 
540 -72 -1910 -538 1767 -888 -243 -25 -955 572 
643 207 -2657 -1751 2431 -160 696 -881 -2287 556 
485 -632 -2283 -1578 1991 -399 75 -636 -2245 391 
68 -969 -1073 -1382 1486 -208 310 -1058 -2110 23 
477 -2278 -544 -747 1507 615 705 -2162 -1440 10 
978 -3277 -297 -1393 2119 1066 738 -2864 -742 -60 
487 -2234 111 -1053 1796 93 1466 -3984 132 -788 
-675 -311 -42 -74 1372 35 19 -5421 444 -648 
-2012 1122 23 157 122 -357 -1137 -4143 1237 -113 
-3814 2269 -926 -87 -583 -1096 -372 -1941 1366 75 
-3791 1719 -878 -166 514 -1608 -11 -248 745 1049 
-2911 216 -627 -643 1150 -1453 190 254 -769 1426 
-1524 -1822 -1242 -497 1844 -1447 -600 234 -187 1403 
-641 -2075 -357 -178 1312 -1236 -687 1007 -755 743 
-633 -1260 -946 -622 1418 -690 -208 1233 -1082 93 
-331 -964 -430 -582 742 -752 658 568 -1773 322 
174 -327 -1111 -1230 130 -699 585 382 -1359 -442 
966 -433 -914 -1129 347 -989 1340 619 -1401 -1368 
1549 0 -822 -615 -38 -1764 2113 -72 -1091 -1359 
1071 313 -410 -90 319 -1688 1119 -472 -626 -849 
135 -72 124 -267 519 -794 -457 -178 140 -268 
104 119 597 109 385 -515 -39 7 -202 -3 
344 -69 -58 -138 28 -221 180 -79 60 405 
53 451 -240 -256 370 -351 -113 85 -119 11 
288 146 -37 -16 196 -557 335 143 98 -75 
-235 413 136 -301 75 -298 -179 488 -147 -349 
13 348 -106 74 0 -415 -522 461 -139 -350 
27 490 190 -86 908 -121 -1216 234 -468 378 
1082 109 -410 -1138 950 -990 -550 -913 -1094 312 
736 -668 -130 -1390 1633 -1522 439 -518 -2201 486 
1069 -277 -212 -2093 1282 -1495 289 -998 -2254 -162 
604 -863 596 -1538 1626 -352 617 -2013 -1796 -46 
683 -2078 450 -1516 965 135 757 -2517 -1545 -865 
1119 -2432 696 -1177 590 507 1705 -2968 -877 -447 
128 -826 169 -882 760 331 1764 -3869 -185 63 
-1282 269 123 -30 500 162 -104 -3674 745 -315 
-3425 1552 528 810 -146 -1125 -271 -2670 1282 -633 
-4345 1963 207 88 219 -1830 106 -1868 1036 -809 
-4509 1209 -249 -617 1190 -2334 622 -700 277 807 
-2685 -143 -354 -1252 2185 -1378 -88 -177 -433 1714 
-1590 -2636 -814 -623 1576 -1499 -359 1150 -402 1493 
-465 -2145 -1356 -228 1181 -1194 -192 2397 -851 830 
-397 -1212 -840 211 770 -148 -8 2025 -1951 -873 
259 -1337 -1075 487 -336 -299 806 1665 -2330 -1002 
476 -434 -733 -7 -96 -630 883 1497 -1578 -1507 
553 -621 -1074 444 44 -797 537 1081 -1369 -2111 
1591 -26 -971 -314 209 -946 1294 119 -1307 -1724 
808 -171 -198 -441 -54 -400 455 -374 -294 -750 
-425 398 981 -603 163 -488 -265 165 268 18 
303 99 841 -205 53 -117 -457 -251 132 329 
-292 1 291 -101 181 -1 -193 210 130 61 
137 -30 -11 -288 584 -609 295 -338 124 402 
301 -50 211 174 277 -260 -341 194 -187 -8 
119 457 -109 -74 385 -40 -56 8 416 294 
-232 308 418 309 482 -587 -9 -190 -129 -148 
-430 561 685 397 437 -570 -784 166 -439 -62 
853 -106 1224 -395 -88 -1712 -723 -643 -1360 111 
780 -862 1323 -1177 390 -1918 702 -977 -2495 -545 
803 -1439 1129 -2189 724 -2620 606 -1179 -1517 -165 
493 -1414 929 -2661 1185 -2010 554 -1883 -416 652 
1087 -1566 -25 -2665 1226 -1655 1071 -2388 267 -312 
1050 -624 221 -2141 -102 -763 2041 -2813 55 564 
-540 -469 -6 -956 -272 -834 1963 -3087 156 273 
-2445 -33 913 -424 206 -472 404 -1793 922 -342 
-4246 2069 150 521 586 -1644 -40 -1713 905 -1396 
-4467 2514 276 -386 1266 -1965 633 -1635 1 -357 
-3376 -101 -14 -1764 2065 -2372 401 104 -86 510 
-1681 -1019 -307 -1255 2183 -1397 -624 -86 -455 825 
-570 -3098 -632 -103 1602 -290 -994 1303 -1311 814 
-85 -2382 -728 296 1161 -610 -165 1157 -1643 107 
-173 -1741 -742 835 65 115 396 1368 -2000 -1111 
44 -1196 -1001 1163 85 -280 -29 1611 -1696 -1915 
699 -730 -367 848 629 -416 -378 969 -1814 -1855 
864 -512 -56 586 472 -167 -322 122 -1851 -1541 
556 -305 18 25 -50 -404 507 -87 -314 -1420 
612 -78 810 -483 -305 -188 297 -129 -606 -939 
-300 169 1719 -305 -265 -640 -524 136 -380 24 
83 191 593 208 -117 -340 -825 -203 -72 -181 
310 390 387 63 199 -337 -480 -28 -23 -99 
262 140 -39 -31 545 -92 306 40 -36 -89 
114 193 -123 4 600 -348 -39 -9 135 -149 
-58 570 -149 110 23 -262 352 128 46 -194 
-42 340 59 895 -385 -660 -450 -119 81 -257 
-30 -150 1164 524 -249 -187 -989 -36 -883 -568 
1073 -103 2467 -211 -1015 -588 -1445 -323 -1440 -996 
911 -983 1897 -957 -314 -395 -182 -1201 -1623 -1005 
644 -1921 738 -1747 552 -1931 758 -1974 -621 17 
455 -923 1045 -2549 1505 -3224 572 -1539 1040 260 
552 -1045 641 -3797 1330 -3026 1226 -1443 873 442 
467 -241 896 -4368 -119 -2599 2062 -2130 125 613 
-251 -146 1151 -4173 -150 -1836 2465 -1653 858 515 
-2821 864 944 -3415 514 -2559 1008 -1032 2034 -116 
-4005 2001 1070 -2501 1354 -3187 470 -650 550 -150 
-3693 2113 562 -2137 2134 -2924 405 -146 -72 -188 
-2228 -528 110 -1089 2121 -1547 160 -272 -568 809 
-510 -2360 531 -429 1841 -932 -651 -455 -272 168 
150 -3315 -476 643 439 -235 348 47 -932 -59 
12 -2160 52 694 443 622 346 682 -1489 -939 
248 -931 -463 1257 -933 431 272 251 -1179 -1300 
516 -602 61 668 -192 425 -343 -398 -1185 -1212 
136 -584 24 879 89 278 -754 -482 -1218 -1565 
514 -502 201 1614 -1016 50 -14 -813 -801 -2081 
20 -138 951 769 -652 103 136 -985 -631 -1427 
510 -471 2277 -787 -354 156 -287 -521 -705 -903 
145 107 2178 -435 -337 -175 -1112 -175 -489 42 
32 423 767 -192 272 -474 -298 -1 240 30 
-67 127 261 -99 62 -469 -141 -135 318 221 
14 102 -172 25 -104 -32 303 -304 -103 430 
-183 -5 -385 169 487 -170 289 268 73 328 
348 94 -293 52 651 -537 302 141 13 420 
-387 274 39 1598 -246 -170 -477 -315 -11 -520 
-233 -144 1280 1151 -872 77 -1155 -693 -1203 -467 
471 -539 2169 614 -1309 285 -1722 -788 -668 -1240 
568 -1881 1892 -60 -1114 920 -1119 -1814 -901 -1862 
277 -1486 1314 -411 -490 136 66 -2074 143 -1479 
573 -336 910 -1595 263 -2222 769 -2235 1155 -1155 
765 -97 779 -3618 -164 -2761 527 -1801 1318 -386 
1186 -136 1116 -4020 -908 -3056 1568 -2449 1288 245 
29 176 1587 -4095 -1130 -3254 1695 -1720 1298 637 
-2120 960 2167 -4854 -159 -2537 1897 -916 702 -1228 
-3301 1385 1722 -4375 897 -1700 995 -249 93 -1010 
-2273 1209 1083 -2981 835 -1179 313 -204 -777 -585 
-730 -1331 370 -1422 1126 -1085 519 -516 -398 408 
139 -1906 634 1041 666 -490 795 -919 -1161 -369 
229 -1571 108 753 -638 291 -20 -843 -1230 -678 
453 -1932 260 1149 -1033 -119 704 -872 -789 -1282 
-81 -1319 11 1280 -1442 161 451 -943 -1158 -962 
-73 -919 363 632 -1226 264 201 -1332 -610 -1207 
418 -554 415 1234 -1154 145 147 -1743 -589 -1231 
197 -816 1233 862 -1808 -72 134 -1551 -383 -1405 
179 -870 1805 493 -588 402 -363 -1163 -814 -1333 
403 -524 3030 -1244 -420 955 -822 -590 -550 -1300 
-96 285 1961 -20 -70 -327 -716 35 -355 175 
242 548 170 -226 142 -96 -264 -280 78 -152 
-132 579 -12 141 18 -544 176 -359 406 206 
323 -3 145 2 446 -52 -158 -223 -35 -236 
-100 65 -430 -447 562 -125 -277 9 451 4 
40 362 30 111 248 -207 296 151 14 -246 
-223 438 -286 2097 -198 -265 -275 -16 -903 -250 
-549 44 1158 1401 -757 780 -928 -775 -1110 -665 
65 -1006 1350 1515 -1486 943 -1754 -1200 -477 -978 
787 -1993 1562 888 -2016 1543 -1759 -2330 -391 -1904 
780 -1232 1612 716 -2231 524 -796 -2724 510 -1912 
468 -566 971 -563 -2723 626 416 -2291 404 -1732 
980 -297 1265 -1648 -2364 -102 815 -2635 742 -1852 
2032 -731 1218 -1620 -2820 -1231 1334 -2211 275 -2112 
1013 162 1367 -2096 -2693 -1472 2228 -1843 42 -2135 
-351 30 1270 -2549 -2376 -557 1962 -1154 83 -2054 
-1086 1353 1123 -2865 -1246 221 1062 385 -1308 -1632 
-1053 408 751 -1733 -335 20 726 358 -1403 -855 
53 -1234 180 -462 -82 340 991 -325 -248 -586 
-271 -888 204 766 -549 -72 354 -428 -508 -773 
-1 -940 573 1034 -1151 180 555 -1533 -1027 -807 
-143 -1019 398 1880 -1449 15 739 -2072 -598 -994 
-528 -960 818 1329 -1444 426 766 -2172 -283 -717 
32 -836 129 1324 -1080 -165 624 -1788 -271 -1081 
436 -1145 940 1137 -1361 152 561 -2448 -432 -1529 
242 -930 1121 356 -2014 353 -49 -1867 -236 -1088 
407 -101 2161 120 -1263 456 -17 -1333 -512 -675 
355 287 2524 -576 -425 544 -443 -564 -683 -297 
-138 -112 1206 -291 136 -555 -192 -150 -537 -234 
262 428 48 -57 -83 -172 102 -52 358 99 
149 5 -372 12 165 -524 10 130 324 468 
-184 95 -177 -452 360 -575 298 -183 3 -75 
304 538 7 -261 279 -624 124 -287 -58 305 
-250 -47 -468 -56 64 -124 -212 35 323 -220 
-156 540 -396 1846 -236 -346 -454 -47 -775 22 
-322 211 1214 2141 -849 -93 -930 -359 -891 -161 
-34 -453 929 1428 -1487 945 -967 -1143 -566 -922 
419 -513 1327 837 -2350 867 -1219 -1792 32 -1714 
452 -814 1229 462 -3346 625 -1372 -1875 544 -2698 
754 131 1954 641 -3533 1600 -549 -1916 -364 -2607 
838 -33 1090 233 -3748 964 -104 -2135 21 -3426 
1700 -648 1049 -44 -3097 617 980 -1563 -422 -3329 
1227 -298 1170 -489 -2673 1015 529 -1163 -1297 -2287 
496 -253 939 -1203 -2172 679 1355 -211 -445 -2255 
-171 -344 228 -718 -1538 662 1716 -52 -838 -1268 
-497 99 181 3 -466 -237 1982 186 -1160 -825 
-26 -534 -20 -287 -411 -26 1512 -1129 -599 -180 
-571 88 212 768 -828 312 974 -1350 -937 -947 
-618 -42 55 835 -506 67 230 -1792 -910 -483 
-445 -217 521 1318 -1031 624 1310 -2600 -428 -1250 
-188 -1070 1078 643 -1463 507 479 -2082 -591 -496 
-194 -817 1303 1332 -804 457 495 -2366 11 -622 
275 -693 1416 489 -819 283 -140 -2095 -138 -842 
-24 -478 1901 -128 -1506 852 -834 -1810 123 -579 
-475 -52 2620 -476 -775 908 -133 -862 -351 -7 
-91 237 1612 -545 96 21 -393 -254 -745 451 
176 544 589 -8 18 -592 -340 -265 -106 400 
17 616 184 -217 418 -392 -362 217 345 248 
133 386 214 117 469 -18 337 192 -203 220 
296 319 -293 153 16 -639 -115 -256 254 150 
148 456 -267 87 504 -260 188 -317 -169 -3 
100 150 -209 205 133 -332 339 -5 -50 -155 
70 242 97 1088 -174 -337 26 -564 -720 207 
-627 266 219 1629 -76 -56 -642 -850 -1313 -443 
65 381 650 1372 -752 -86 -1497 -1306 -556 -826 
745 234 930 980 -1946 12 -1335 -1167 311 -1638 
684 247 1208 958 -2430 392 -1359 -1477 671 -2132 
725 -174 954 560 -2215 1800 -801 -1139 141 -2112 
711 -560 933 229 -2347 895 -377 -1219 -91 -2486 
1186 -209 369 59 -2006 1054 803 -1340 -535 -2532 
1502 -835 911 -458 -1569 663 916 -833 -1068 -1763 
1237 -1214 -163 297 -1159 847 1498 -597 -763 -1659 
631 -766 -311 212 -1193 197 1682 134 22 -932 
-468 -25 -360 51 -1068 639 1413 -120 179 -1010 
-310 -47 -269 -89 -458 -124 1396 -394 -580 -824 
62 840 487 262 -902 -47 932 -1433 -1004 -922 
-588 269 813 693 -421 112 1006 -1409 -223 -1365 
-400 -79 732 795 -227 356 834 -2293 -185 -1723 
-782 -462 887 450 -128 341 300 -2138 -61 -1511 
-1 -807 712 420 -464 722 -532 -2260 -300 -639 
-216 -1040 1765 -598 -519 1056 -710 -1627 -105 -137 
-316 -668 1877 -348 -851 767 -832 -1801 114 -360 
-286 -28 2352 -793 -113 669 -596 -485 -714 142 
166 -159 944 -494 280 -106 -161 -228 -427 492 
-236 124 598 -42 -203 -314 33 24 288 238 
89 37 206 197 300 -178 249 -4 10 33 
-244 435 166 -231 492 -172 -108 -324 301 50 
331 374 266 79 241 -255 0 92 -101 -120 
-100 602 -74 -12 317 5 -119 -325 379 386 
-311 -61 -306 196 579 -495 -150 -548 167 247 
-477 473 109 837 -36 -175 34 -468 19 13 
-218 692 303 1055 -155 89 -351 -87 -1381 -419 
-37 1217 707 1382 -245 -17 -513 -364 -1313 -1095 
326 894 205 1363 -996 -1069 -1346 -352 191 -1437 
121 891 465 468 -1650 -646 -1301 -394 -507 -2037 
432 -144 736 356 -1653 557 -1526 -462 -227 -1397 
921 -401 186 237 -1313 741 -1261 -341 -455 -1206 
947 -874 680 363 -1135 364 -485 -543 427 -1401 
763 -1323 382 438 -858 896 -506 -886 300 -1206 
1034 -2067 -326 343 -999 775 353 -675 1079 -1003 
1273 -1835 -1127 -551 -991 1466 192 -577 1062 -1207 
608 -175 -888 182 -1028 609 -123 -56 1220 -1113 
418 286 -733 -224 -602 -262 -241 -205 345 -1640 
157 1424 -653 -18 -332 -183 183 -725 -487 -1462 
-118 1689 89 -41 -572 218 40 -1330 -307 -1464 
-278 545 1245 -251 170 -36 -893 -1463 492 -1665 
-582 -177 1149 191 1039 691 -1101 -1867 -559 -1149 
-210 -1089 1470 -201 711 1016 -1354 -1805 -854 -730 
-787 -675 1520 -681 521 714 -690 -1561 -207 -222 
-318 -436 1157 -644 102 330 -867 -1415 139 432 
-38 -370 1287 -372 49 191 -23 -602 -110 720 
40 142 358 -304 255 -72 -50 -514 -240 375 
288 -89 410 -523 520 -176 224 153 307 413 
406 12 -172 -52 394 -49 86 107 -153 426 
212 432 -285 -252 121 -25 -203 -320 170 399 
365 -2 -327 129 405 -464 -138 331 240 408 
402 559 -331 33 319 -669 105 38 -36 396 
381 99 235 -285 400 -656 -32 -265 290 108 
-398 395 -312 422 488 -389 129 -307 -178 -261 
110 257 147 933 275 -188 -272 3 -919 -367 
-452 1510 -780 1156 -168 -488 -277 245 -2099 -752 
-215 999 -463 874 -651 -60 -614 898 -1658 -923 
-14 347 -1370 1099 -1004 -399 -1342 1103 -1061 -847 
213 -46 -1075 271 -1079 119 -1829 820 -468 -405 
1089 -438 -1103 71 -500 142 -1812 -459 -174 -4 
907 -418 -107 -55 -922 453 -2424 37 451 -572 
1545 -540 19 135 -416 596 -2375 -899 485 -956 
1378 -1314 -258 -166 -1256 645 -2409 -951 1584 -1116 
1100 -1034 -1302 -154 -867 -102 -1308 -94 2012 -1270 
747 -867 -1825 64 -197 459 -1477 117 1756 -1445 
63 491 -1431 -18 -802 494 -1320 263 1001 -1652 
54 1969 -1143 -87 -260 332 -2358 -499 431 -2085 
-184 1732 -1058 18 211 46 -1943 -598 335 -1500 
-411 727 210 310 782 -137 -1771 -1190 424 -1025 
-1172 -463 283 -317 665 -151 -1115 -1084 965 45 
-692 -480 393 -194 977 -318 -438 -1616 891 502 
-835 -363 972 -537 -151 249 -881 -1459 31 526 
-60 -183 509 -716 -525 58 -533 -567 223 868 
-324 32 74 -135 -345 -176 -299 -484 -75 1375 
-108 154 -35 -300 428 -146 48 -202 1 419 
-96 300 232 24 331 -290 -216 -101 43 150 
-27 90 77 190 275 -404 167 224 126 336 
373 479 -338 -357 99 -83 228 -129 -90 28 
-278 101 -366 -127 476 -271 205 105 85 338 
-47 474 201 -307 146 -484 33 200 43 -183 
139 263 37 -288 529 -474 -209 -37 265 5 
249 -30 -224 197 293 -196 344 -173 -155 -297 
-61 148 -253 537 441 -189 246 308 -698 140 
-509 436 -724 1021 211 -384 0 651 -1334 -26 
-219 630 -1319 1689 -135 -73 -43 1718 -1882 23 
-774 -174 -1787 1419 -612 -383 -477 1495 -1187 527 
-410 -1431 -1837 1174 -477 -163 -467 1429 -358 276 
-249 -1472 -2283 1069 -743 692 -952 1029 -87 638 
-675 -2375 -1660 1051 -485 -46 -916 1055 -119 -309 
-272 -1867 -1332 1338 -340 428 -1418 619 917 -564 
592 -1761 -1285 1429 -666 73 -1292 457 594 -493 
636 -1766 -1489 724 -1151 722 -1578 403 235 -976 
-28 -1636 -1527 1044 -926 476 -1724 628 704 -1030 
-118 -986 -1488 761 -1077 517 -1724 782 1635 -1127 
-297 -961 -1780 452 -388 254 -1330 494 1667 -625 
-1036 26 -1299 -654 -458 -398 -1275 493 936 173 
-607 312 -1000 -1238 89 40 -792 -311 1743 558 
-748 -145 -717 -1030 -148 -371 -776 -862 1367 728 
-1019 39 -861 -756 -109 -483 -382 -430 644 1202 
-441 383 -398 -745 -315 -172 -403 -953 194 1410 
152 278 -133 -21 137 155 -507 -807 -34 1350 
-160 290 -188 -425 29 -224 134 -693 537 1158 
269 477 -414 -241 367 -249 334 -459 149 438 
-223 255 255 -269 204 -162 -262 94 -127 -157 
-190 530 -191 -359 51 -495 -275 -281 220 -38 
-50 -25 56 -357 35 -36 192 235 88 335 
-227 410 -276 -256 49 -613 5 76 -121 -25 
-253 410 -214 -251 202 -309 262 -293 198 124 
110 13 225 -306 193 -307 309 286 123 101 
-279 509 -556 -233 -38 60 -84 -13 425 -10 
184 363 -2 -221 448 -514 91 -4 -234 303 
-291 353 -221 355 -334 -549 53 941 -684 123 
-18 197 -694 348 -150 -179 46 1018 -993 995 
-113 -164 -1503 346 -682 -523 215 1165 -1225 1114 
-580 -634 -1461 939 -898 -428 -208 1052 -1159 1741 
-735 -1129 -1308 957 -1409 -306 25 1741 -751 1318 
-1206 -1143 -1740 1275 -1234 160 -444 1094 -588 686 
-1223 -1424 -1585 1252 -2115 170 -38 1975 -1199 610 
-1404 -1403 -842 1243 -2061 227 -251 1566 -834 586 
-1583 -1931 -757 938 -1756 1047 -286 1052 -1029 793 
-1534 -1253 -1457 641 -1626 259 -329 807 -417 361 
-1053 -1487 -1323 158 -1988 -167 -567 1507 138 705 
-788 -1066 -911 -661 -1684 -281 -562 1248 632 1605 
-1023 -405 -445 -546 -2213 -234 -324 627 630 2097 
-897 10 -417 -713 -1867 -462 151 408 809 2178 
-547 86 -581 -869 -1123 -1022 -343 23 268 1721 
-463 94 -218 -435 -1018 -511 213 127 -95 2427 
-695 383 -392 -215 -828 -605 -406 -583 221 1908 
90 474 -138 -464 -13 -425 303 -190 -141 1047 
-214 139 -101 84 -147 -408 142 -140 71 604 
-64 275 156 -118 254 -250 74 311 323 -19 
-244 200 -437 -301 325 -323 -67 259 420 353 
-159 378 161 -248 181 -657 -10 19 195 444 
235 -36 -210 -115 261 -86 267 215 301 -55 
-184 118 -103 216 593 -246 -114 237 -90 458 
-3 565 -432 -156 463 -671 -251 96 79 262 
15 246 167 -79 256 -451 -213 305 182 -29 
399 539 -106 231 449 -388 109 106 -218 -43 
371 265 110 -462 272 -668 -124 -335 127 253 
92 233 64 -73 -114 -9 -269 281 -39 71 
218 417 124 145 -314 -642 83 51 -75 324 
-234 232 47 -122 -194 -335 -47 66 69 887 
-398 445 -144 -307 -353 -517 -88 275 -390 1210 
-601 -165 -282 -119 -665 -744 226 -150 -52 1410 
-571 231 -312 -177 -1390 -768 -371 760 -48 1449 
-141 -170 56 -27 -1127 -724 20 793 -97 1362 
-507 127 123 -204 -1714 -341 -44 74 -630 1923 
-556 -546 -152 61 -1253 -206 224 791 -517 1870 
-143 -334 149 -267 -1992 -200 -88 1020 -361 1694 
-375 -51 -308 -224 -1732 -249 175 1010 -25 1298 
-168 -125 86 -607 -1381 41 195 667 165 1131 
-59 497 42 -231 -1601 -561 -320 1188 -111 1127 
84 474 -382 -537 -1277 -451 -7 1122 -130 1357 
-243 -2 -453 -85 -576 -631 -319 334 -347 1115 
-317 119 -431 -147 -258 -154 -284 88 283 830 
-186 85 -416 -185 199 -216 236 -47 343 902 
253 -93 -26 -350 305 -558 115 -171 -44 -140 
-301 565 -197 225 568 -487 -78 -183 -130 230 
376 -53 -141 -49 472 -247 -35 -280 -96 -123 
-67 282 123 -261 11 -280 -77 52 -199 310 
11 495 -181 -117 440 -515 231 100 332 -181 
84 -83 -189 205 337 -246 198 -259 199 182 
27 272 -172 -45 200 -474 236 226 175 -123 
-271 522 -305 161 263 -408 43 -302 430 -40 
-296 296 -292 -375 54 -225 -41 -373 -45 -159 
321 226 -357 117 201 -1 -21 -197 305 321 
-168 -55 -416 -136 99 -214 137 -254 211 337 
264 231 27 29 513 -24 -348 10 228 -170 
251 106 81 -391 134 -187 -78 -179 427 121 
294 514 -249 -279 -10 -541 -222 -185 279 118 
5 -31 157 23 -32 -527 108 300 -101 14 
269 310 -98 -248 213 -496 -112 -110 408 433 
7 600 115 -11 507 -449 71 94 241 0 
-207 -52 -319 193 -128 -209 270 177 -129 118 
-241 221 -369 -86 -339 -350 99 -38 -257 187 
207 135 128 58 81 -362 -44 575 320 -116 
213 -33 -81 55 -87 -620 92 160 -208 560 
-320 588 -49 -128 111 -576 25 131 -8 293 
122 -26 83 -242 173 -238 -76 539 442 -11 
-316 202 -423 -181 129 -360 -17 497 322 -173 
-120 -55 80 4 -66 -212 305 635 -189 196 
116 588 101 -341 -222 -15 60 144 282 222 
303 -25 -408 -317 13 -610 -318 60 96 420 
89 445 20 22 331 -226 228 -1 389 200 
298 329 -83 -286 386 -347 167 128 -181 -91 
291 61 -67 212 290 25 75 -330 326 134 
-25 121 -267 -16 585 -307 -3 196 -239 48 
-250 561 173 -467 -75 -643 79 -244 -215 -216 
168 252 150 -90 596 -541 96 -136 438 4 
309 202 188 -203 -44 -96 39 126 37 -231 
